<?xml version="1.0"?>
<opencv_storage>
<cascade>
  <stageType>BOOST</stageType>
  <featureType>HAAR</featureType>
  <height>26</height>
  <width>34</width>
  <stageParams>
    <boostType>GAB</boostType>
    <minHitRate>9.9999898672103882e-01</minHitRate>
    <maxFalseAlarm>5.0000000000000000e-01</maxFalseAlarm>
    <weightTrimRate>9.4999999999999996e-01</weightTrimRate>
    <maxDepth>1</maxDepth>
    <maxWeakCount>100</maxWeakCount></stageParams>
  <featureParams>
    <maxCatCount>0</maxCatCount>
    <featSize>1</featSize>
    <mode>ALL</mode></featureParams>
  <stageNum>18</stageNum>
  <stages>
    <!-- stage 0 -->
    <_>
      <maxWeakCount>4</maxWeakCount>
      <stageThreshold>-2.0879912376403809e+00</stageThreshold>
      <weakClassifiers>
        <_>
          <internalNodes>
            0 -1 37 -5.7217769324779510e-02</internalNodes>
          <leafValues>
            6.9239503145217896e-01 -9.2930364608764648e-01</leafValues></_>
        <_>
          <internalNodes>
            0 -1 10 2.7947533875703812e-02</internalNodes>
          <leafValues>
            -8.6165207624435425e-01 7.5360870361328125e-01</leafValues></_>
        <_>
          <internalNodes>
            0 -1 23 5.1281087100505829e-02</internalNodes>
          <leafValues>
            -8.7638813257217407e-01 6.7642265558242798e-01</leafValues></_>
        <_>
          <internalNodes>
            0 -1 76 4.8408582806587219e-03</internalNodes>
          <leafValues>
            -8.2759034633636475e-01 5.7935273647308350e-01</leafValues></_></weakClassifiers></_>
    <!-- stage 1 -->
    <_>
      <maxWeakCount>5</maxWeakCount>
      <stageThreshold>-1.3278303146362305e+00</stageThreshold>
      <weakClassifiers>
        <_>
          <internalNodes>
            0 -1 4 8.9549854397773743e-02</internalNodes>
          <leafValues>
            -8.3259910345077515e-01 8.7544232606887817e-01</leafValues></_>
        <_>
          <internalNodes>
            0 -1 188 -3.2045900821685791e-02</internalNodes>
          <leafValues>
            7.0492184162139893e-01 -7.8390496969223022e-01</leafValues></_>
        <_>
          <internalNodes>
            0 -1 113 2.1675801835954189e-03</internalNodes>
          <leafValues>
            -8.3915597200393677e-01 5.6555020809173584e-01</leafValues></_>
        <_>
          <internalNodes>
            0 -1 36 -5.2167236804962158e-02</internalNodes>
          <leafValues>
            6.0540431737899780e-01 -8.1340849399566650e-01</leafValues></_>
        <_>
          <internalNodes>
            0 -1 30 5.6012578308582306e-02</internalNodes>
          <leafValues>
            -8.2989221811294556e-01 5.3653204441070557e-01</leafValues></_></weakClassifiers></_>
    <!-- stage 2 -->
    <_>
      <maxWeakCount>6</maxWeakCount>
      <stageThreshold>-1.9490941762924194e+00</stageThreshold>
      <weakClassifiers>
        <_>
          <internalNodes>
            0 -1 58 -5.6584436446428299e-02</internalNodes>
          <leafValues>
            7.4839168787002563e-01 -7.6942354440689087e-01</leafValues></_>
        <_>
          <internalNodes>
            0 -1 72 5.3604729473590851e-03</internalNodes>
          <leafValues>
            -7.9295772314071655e-01 4.6829387545585632e-01</leafValues></_>
        <_>
          <internalNodes>
            0 -1 9 2.1725637838244438e-02</internalNodes>
          <leafValues>
            -6.7040079832077026e-01 6.2304735183715820e-01</leafValues></_>
        <_>
          <internalNodes>
            0 -1 49 -7.3263764381408691e-02</internalNodes>
          <leafValues>
            4.2369273304939270e-01 -8.8685148954391479e-01</leafValues></_>
        <_>
          <internalNodes>
            0 -1 188 -5.8553121984004974e-02</internalNodes>
          <leafValues>
            7.0122599601745605e-01 -5.1269906759262085e-01</leafValues></_>
        <_>
          <internalNodes>
            0 -1 162 -2.8746656607836485e-03</internalNodes>
          <leafValues>
            4.2198687791824341e-01 -8.1093853712081909e-01</leafValues></_></weakClassifiers></_>
    <!-- stage 3 -->
    <_>
      <maxWeakCount>7</maxWeakCount>
      <stageThreshold>-2.0056076049804688e+00</stageThreshold>
      <weakClassifiers>
        <_>
          <internalNodes>
            0 -1 22 1.5803596377372742e-01</internalNodes>
          <leafValues>
            -7.2833281755447388e-01 6.3610720634460449e-01</leafValues></_>
        <_>
          <internalNodes>
            0 -1 192 -4.7388724051415920e-03</internalNodes>
          <leafValues>
            5.0708341598510742e-01 -6.7516195774078369e-01</leafValues></_>
        <_>
          <internalNodes>
            0 -1 66 -4.5233108103275299e-03</internalNodes>
          <leafValues>
            3.9153283834457397e-01 -7.6806300878524780e-01</leafValues></_>
        <_>
          <internalNodes>
            0 -1 68 7.7354282140731812e-02</internalNodes>
          <leafValues>
            -8.0469346046447754e-01 3.4907341003417969e-01</leafValues></_>
        <_>
          <internalNodes>
            0 -1 106 1.1987801408395171e-03</internalNodes>
          <leafValues>
            -7.9126125574111938e-01 3.3994650840759277e-01</leafValues></_>
        <_>
          <internalNodes>
            0 -1 6 3.1296916306018829e-02</internalNodes>
          <leafValues>
            -7.3163324594497681e-01 3.6833500862121582e-01</leafValues></_>
        <_>
          <internalNodes>
            0 -1 57 -3.3780902624130249e-02</internalNodes>
          <leafValues>
            2.3397402465343475e-01 -9.1491478681564331e-01</leafValues></_></weakClassifiers></_>
    <!-- stage 4 -->
    <_>
      <maxWeakCount>8</maxWeakCount>
      <stageThreshold>-2.4752218723297119e+00</stageThreshold>
      <weakClassifiers>
        <_>
          <internalNodes>
            0 -1 194 -5.6261800229549408e-02</internalNodes>
          <leafValues>
            6.2733811140060425e-01 -7.1258980035781860e-01</leafValues></_>
        <_>
          <internalNodes>
            0 -1 80 -5.4118307307362556e-03</internalNodes>
          <leafValues>
            4.7176158428192139e-01 -7.4328488111495972e-01</leafValues></_>
        <_>
          <internalNodes>
            0 -1 71 1.1336024850606918e-02</internalNodes>
          <leafValues>
            -8.0727195739746094e-01 3.5691437125205994e-01</leafValues></_>
        <_>
          <internalNodes>
            0 -1 119 6.5871787955984473e-04</internalNodes>
          <leafValues>
            -6.5329039096832275e-01 3.7127518653869629e-01</leafValues></_>
        <_>
          <internalNodes>
            0 -1 124 3.4669443964958191e-02</internalNodes>
          <leafValues>
            -7.2439205646514893e-01 3.2789504528045654e-01</leafValues></_>
        <_>
          <internalNodes>
            0 -1 11 3.3555202186107635e-02</internalNodes>
          <leafValues>
            -6.7862337827682495e-01 4.1757249832153320e-01</leafValues></_>
        <_>
          <internalNodes>
            0 -1 40 -3.8010723888874054e-02</internalNodes>
          <leafValues>
            2.4282443523406982e-01 -8.9612847566604614e-01</leafValues></_>
        <_>
          <internalNodes>
            0 -1 107 2.4472011718899012e-03</internalNodes>
          <leafValues>
            -7.9080891609191895e-01 2.9740944504737854e-01</leafValues></_></weakClassifiers></_>
    <!-- stage 5 -->
    <_>
      <maxWeakCount>9</maxWeakCount>
      <stageThreshold>-1.8465770483016968e+00</stageThreshold>
      <weakClassifiers>
        <_>
          <internalNodes>
            0 -1 173 5.9521485120058060e-02</internalNodes>
          <leafValues>
            -6.4956772327423096e-01 7.5379127264022827e-01</leafValues></_>
        <_>
          <internalNodes>
            0 -1 70 -2.1731257438659668e-03</internalNodes>
          <leafValues>
            3.9799043536186218e-01 -6.2129950523376465e-01</leafValues></_>
        <_>
          <internalNodes>
            0 -1 8 4.4726073741912842e-02</internalNodes>
          <leafValues>
            -4.4296881556510925e-01 4.9844458699226379e-01</leafValues></_>
        <_>
          <internalNodes>
            0 -1 151 -2.4597734212875366e-02</internalNodes>
          <leafValues>
            3.3642476797103882e-01 -7.4188888072967529e-01</leafValues></_>
        <_>
          <internalNodes>
            0 -1 88 2.4226881563663483e-02</internalNodes>
          <leafValues>
            -7.3628401756286621e-01 2.8798291087150574e-01</leafValues></_>
        <_>
          <internalNodes>
            0 -1 181 -4.6125948429107666e-02</internalNodes>
          <leafValues>
            4.7468534111976624e-01 -4.6095746755599976e-01</leafValues></_>
        <_>
          <internalNodes>
            0 -1 145 -2.0999959670007229e-03</internalNodes>
          <leafValues>
            3.3730992674827576e-01 -6.3509285449981689e-01</leafValues></_>
        <_>
          <internalNodes>
            0 -1 55 -1.9466539844870567e-02</internalNodes>
          <leafValues>
            2.3462873697280884e-01 -8.2558512687683105e-01</leafValues></_>
        <_>
          <internalNodes>
            0 -1 130 1.4301233459264040e-03</internalNodes>
          <leafValues>
            -6.3180983066558838e-01 2.8786772489547729e-01</leafValues></_></weakClassifiers></_>
    <!-- stage 6 -->
    <_>
      <maxWeakCount>11</maxWeakCount>
      <stageThreshold>-1.9733227491378784e+00</stageThreshold>
      <weakClassifiers>
        <_>
          <internalNodes>
            0 -1 7 1.0033254325389862e-01</internalNodes>
          <leafValues>
            -7.6554405689239502e-01 6.3539588451385498e-01</leafValues></_>
        <_>
          <internalNodes>
            0 -1 195 -2.5637108832597733e-02</internalNodes>
          <leafValues>
            5.4056376218795776e-01 -5.8543986082077026e-01</leafValues></_>
        <_>
          <internalNodes>
            0 -1 74 -4.9995895475149155e-02</internalNodes>
          <leafValues>
            6.2077939510345459e-01 -4.2588496208190918e-01</leafValues></_>
        <_>
          <internalNodes>
            0 -1 64 -2.0938650704920292e-03</internalNodes>
          <leafValues>
            4.7072607278823853e-01 -4.2116901278495789e-01</leafValues></_>
        <_>
          <internalNodes>
            0 -1 185 -5.9397384524345398e-02</internalNodes>
          <leafValues>
            8.6090797185897827e-01 -2.6690956950187683e-01</leafValues></_>
        <_>
          <internalNodes>
            0 -1 39 1.5299615915864706e-03</internalNodes>
          <leafValues>
            -7.8473031520843506e-01 3.2677239179611206e-01</leafValues></_>
        <_>
          <internalNodes>
            0 -1 102 -1.8507197964936495e-03</internalNodes>
          <leafValues>
            3.1088653206825256e-01 -6.1098068952560425e-01</leafValues></_>
        <_>
          <internalNodes>
            0 -1 53 8.4388069808483124e-02</internalNodes>
          <leafValues>
            -6.9050598144531250e-01 3.0311292409896851e-01</leafValues></_>
        <_>
          <internalNodes>
            0 -1 142 4.8186387866735458e-03</internalNodes>
          <leafValues>
            1.6584688425064087e-01 -8.2082444429397583e-01</leafValues></_>
        <_>
          <internalNodes>
            0 -1 202 -5.6914007291197777e-04</internalNodes>
          <leafValues>
            -6.2468999624252319e-01 2.5470921397209167e-01</leafValues></_>
        <_>
          <internalNodes>
            0 -1 149 -4.1577681899070740e-02</internalNodes>
          <leafValues>
            2.0419095456600189e-01 -7.1904289722442627e-01</leafValues></_></weakClassifiers></_>
    <!-- stage 7 -->
    <_>
      <maxWeakCount>12</maxWeakCount>
      <stageThreshold>-2.5137784481048584e+00</stageThreshold>
      <weakClassifiers>
        <_>
          <internalNodes>
            0 -1 24 8.1466838717460632e-02</internalNodes>
          <leafValues>
            -6.9830292463302612e-01 5.7700496912002563e-01</leafValues></_>
        <_>
          <internalNodes>
            0 -1 52 4.7053419053554535e-02</internalNodes>
          <leafValues>
            -4.5348230004310608e-01 6.5197211503982544e-01</leafValues></_>
        <_>
          <internalNodes>
            0 -1 155 -5.6734390091150999e-04</internalNodes>
          <leafValues>
            3.4435144066810608e-01 -6.5092170238494873e-01</leafValues></_>
        <_>
          <internalNodes>
            0 -1 15 1.8967457115650177e-02</internalNodes>
          <leafValues>
            -6.6360062360763550e-01 3.0383664369583130e-01</leafValues></_>
        <_>
          <internalNodes>
            0 -1 84 -2.8409310616552830e-03</internalNodes>
          <leafValues>
            4.1672572493553162e-01 -4.8529982566833496e-01</leafValues></_>
        <_>
          <internalNodes>
            0 -1 184 4.9748301506042480e-02</internalNodes>
          <leafValues>
            -3.5642772912979126e-01 6.1554712057113647e-01</leafValues></_>
        <_>
          <internalNodes>
            0 -1 197 1.5208136290311813e-02</internalNodes>
          <leafValues>
            -4.1253024339675903e-01 4.3773633241653442e-01</leafValues></_>
        <_>
          <internalNodes>
            0 -1 112 -1.9872488337568939e-04</internalNodes>
          <leafValues>
            2.4738556146621704e-01 -6.5296256542205811e-01</leafValues></_>
        <_>
          <internalNodes>
            0 -1 134 2.3412732116412371e-04</internalNodes>
          <leafValues>
            1.6715182363986969e-01 -7.8690320253372192e-01</leafValues></_>
        <_>
          <internalNodes>
            0 -1 153 -3.6930202622897923e-04</internalNodes>
          <leafValues>
            -6.3149303197860718e-01 2.1299600601196289e-01</leafValues></_>
        <_>
          <internalNodes>
            0 -1 56 -5.5407518520951271e-03</internalNodes>
          <leafValues>
            2.0493337512016296e-01 -7.2849273681640625e-01</leafValues></_>
        <_>
          <internalNodes>
            0 -1 138 -4.4938741484656930e-04</internalNodes>
          <leafValues>
            2.4801693856716156e-01 -6.0057210922241211e-01</leafValues></_></weakClassifiers></_>
    <!-- stage 8 -->
    <_>
      <maxWeakCount>12</maxWeakCount>
      <stageThreshold>-2.2489082813262939e+00</stageThreshold>
      <weakClassifiers>
        <_>
          <internalNodes>
            0 -1 182 -1.4045825600624084e-01</internalNodes>
          <leafValues>
            6.3973063230514526e-01 -6.3737881183624268e-01</leafValues></_>
        <_>
          <internalNodes>
            0 -1 26 1.6776166856288910e-02</internalNodes>
          <leafValues>
            -6.2742966413497925e-01 4.3051135540008545e-01</leafValues></_>
        <_>
          <internalNodes>
            0 -1 45 7.4770436622202396e-03</internalNodes>
          <leafValues>
            -6.2799686193466187e-01 3.3224350214004517e-01</leafValues></_>
        <_>
          <internalNodes>
            0 -1 136 1.1050865286961198e-03</internalNodes>
          <leafValues>
            -5.7572633028030396e-01 3.0655211210250854e-01</leafValues></_>
        <_>
          <internalNodes>
            0 -1 105 1.2814605142921209e-03</internalNodes>
          <leafValues>
            -7.1076577901840210e-01 2.3345944285392761e-01</leafValues></_>
        <_>
          <internalNodes>
            0 -1 51 1.0985147207975388e-02</internalNodes>
          <leafValues>
            -5.2995306253433228e-01 3.3759334683418274e-01</leafValues></_>
        <_>
          <internalNodes>
            0 -1 190 -2.6916038244962692e-02</internalNodes>
          <leafValues>
            2.6134943962097168e-01 -5.7505148649215698e-01</leafValues></_>
        <_>
          <internalNodes>
            0 -1 34 4.8244033008813858e-02</internalNodes>
          <leafValues>
            -7.6403719186782837e-01 1.9326701760292053e-01</leafValues></_>
        <_>
          <internalNodes>
            0 -1 38 -1.4962925575673580e-02</internalNodes>
          <leafValues>
            -9.3266928195953369e-01 1.3735137879848480e-01</leafValues></_>
        <_>
          <internalNodes>
            0 -1 18 -1.9540761131793261e-03</internalNodes>
          <leafValues>
            -7.1532166004180908e-01 1.6381637752056122e-01</leafValues></_>
        <_>
          <internalNodes>
            0 -1 104 -8.2035490777343512e-04</internalNodes>
          <leafValues>
            4.0839156508445740e-01 -3.5686016082763672e-01</leafValues></_>
        <_>
          <internalNodes>
            0 -1 198 -2.5381083833053708e-04</internalNodes>
          <leafValues>
            -8.1956452131271362e-01 1.7913974821567535e-01</leafValues></_></weakClassifiers></_>
    <!-- stage 9 -->
    <_>
      <maxWeakCount>11</maxWeakCount>
      <stageThreshold>-2.3057637214660645e+00</stageThreshold>
      <weakClassifiers>
        <_>
          <internalNodes>
            0 -1 101 1.5929322689771652e-02</internalNodes>
          <leafValues>
            -6.6830164194107056e-01 5.8013546466827393e-01</leafValues></_>
        <_>
          <internalNodes>
            0 -1 78 9.9953562021255493e-03</internalNodes>
          <leafValues>
            -4.3977713584899902e-01 5.5518192052841187e-01</leafValues></_>
        <_>
          <internalNodes>
            0 -1 186 3.8806365337222815e-03</internalNodes>
          <leafValues>
            -4.4691672921180725e-01 4.1546955704689026e-01</leafValues></_>
        <_>
          <internalNodes>
            0 -1 59 -1.0463891550898552e-02</internalNodes>
          <leafValues>
            2.7853903174400330e-01 -6.3147139549255371e-01</leafValues></_>
        <_>
          <internalNodes>
            0 -1 140 4.1849463013932109e-04</internalNodes>
          <leafValues>
            -6.7259895801544189e-01 2.6930075883865356e-01</leafValues></_>
        <_>
          <internalNodes>
            0 -1 144 8.4756105206906796e-04</internalNodes>
          <leafValues>
            1.0438215732574463e-01 -8.5852140188217163e-01</leafValues></_>
        <_>
          <internalNodes>
            0 -1 200 7.9817818477749825e-03</internalNodes>
          <leafValues>
            -6.6994756460189819e-01 2.3673622310161591e-01</leafValues></_>
        <_>
          <internalNodes>
            0 -1 167 1.1575793847441673e-02</internalNodes>
          <leafValues>
            -5.9704524278640747e-01 2.5652033090591431e-01</leafValues></_>
        <_>
          <internalNodes>
            0 -1 0 5.4220804013311863e-03</internalNodes>
          <leafValues>
            1.6947916150093079e-01 -7.5008428096771240e-01</leafValues></_>
        <_>
          <internalNodes>
            0 -1 132 1.3919972116127610e-03</internalNodes>
          <leafValues>
            -5.1332187652587891e-01 3.0465680360794067e-01</leafValues></_>
        <_>
          <internalNodes>
            0 -1 100 -3.2766669988632202e-02</internalNodes>
          <leafValues>
            2.1375149488449097e-01 -6.5986609458923340e-01</leafValues></_></weakClassifiers></_>
    <!-- stage 10 -->
    <_>
      <maxWeakCount>14</maxWeakCount>
      <stageThreshold>-1.8806595802307129e+00</stageThreshold>
      <weakClassifiers>
        <_>
          <internalNodes>
            0 -1 75 -9.0671628713607788e-03</internalNodes>
          <leafValues>
            4.2094990611076355e-01 -6.7321544885635376e-01</leafValues></_>
        <_>
          <internalNodes>
            0 -1 90 1.3146635610610247e-03</internalNodes>
          <leafValues>
            -3.9454054832458496e-01 5.7327258586883545e-01</leafValues></_>
        <_>
          <internalNodes>
            0 -1 60 -5.5176094174385071e-03</internalNodes>
          <leafValues>
            2.9986459016799927e-01 -5.7580232620239258e-01</leafValues></_>
        <_>
          <internalNodes>
            0 -1 47 -2.1465620957314968e-03</internalNodes>
          <leafValues>
            2.3248611390590668e-01 -6.8291735649108887e-01</leafValues></_>
        <_>
          <internalNodes>
            0 -1 27 -2.0253624767065048e-02</internalNodes>
          <leafValues>
            -8.1709074974060059e-01 2.0237666368484497e-01</leafValues></_>
        <_>
          <internalNodes>
            0 -1 17 1.1007631197571754e-02</internalNodes>
          <leafValues>
            -6.5358769893646240e-01 2.1399548649787903e-01</leafValues></_>
        <_>
          <internalNodes>
            0 -1 2 3.8982156664133072e-02</internalNodes>
          <leafValues>
            -6.0324078798294067e-01 1.9725939631462097e-01</leafValues></_>
        <_>
          <internalNodes>
            0 -1 127 -7.8248232603073120e-03</internalNodes>
          <leafValues>
            2.3060031235218048e-01 -6.0131478309631348e-01</leafValues></_>
        <_>
          <internalNodes>
            0 -1 153 4.2223313357681036e-04</internalNodes>
          <leafValues>
            1.2408093363046646e-01 -8.0227988958358765e-01</leafValues></_>
        <_>
          <internalNodes>
            0 -1 146 3.3826357685029507e-04</internalNodes>
          <leafValues>
            1.5833270549774170e-01 -7.4305462837219238e-01</leafValues></_>
        <_>
          <internalNodes>
            0 -1 204 -1.8192655406892300e-03</internalNodes>
          <leafValues>
            -7.2162228822708130e-01 1.5780992805957794e-01</leafValues></_>
        <_>
          <internalNodes>
            0 -1 14 1.4346702024340630e-02</internalNodes>
          <leafValues>
            -7.3772323131561279e-01 1.7805178463459015e-01</leafValues></_>
        <_>
          <internalNodes>
            0 -1 97 1.1176373809576035e-03</internalNodes>
          <leafValues>
            -2.8382712602615356e-01 5.1383179426193237e-01</leafValues></_>
        <_>
          <internalNodes>
            0 -1 201 3.7878481671214104e-03</internalNodes>
          <leafValues>
            -7.2190654277801514e-01 2.1955928206443787e-01</leafValues></_></weakClassifiers></_>
    <!-- stage 11 -->
    <_>
      <maxWeakCount>14</maxWeakCount>
      <stageThreshold>-2.1162526607513428e+00</stageThreshold>
      <weakClassifiers>
        <_>
          <internalNodes>
            0 -1 172 1.2742048501968384e-01</internalNodes>
          <leafValues>
            -6.0218453407287598e-01 6.1690646409988403e-01</leafValues></_>
        <_>
          <internalNodes>
            0 -1 108 -1.1051846668124199e-03</internalNodes>
          <leafValues>
            2.9127687215805054e-01 -6.0864549875259399e-01</leafValues></_>
        <_>
          <internalNodes>
            0 -1 62 -1.3684760779142380e-03</internalNodes>
          <leafValues>
            2.3297064006328583e-01 -6.9222605228424072e-01</leafValues></_>
        <_>
          <internalNodes>
            0 -1 158 -1.1051716282963753e-03</internalNodes>
          <leafValues>
            3.7562158703804016e-01 -4.5902737975120544e-01</leafValues></_>
        <_>
          <internalNodes>
            0 -1 35 5.7371933013200760e-02</internalNodes>
          <leafValues>
            -4.4228535890579224e-01 3.3901232481002808e-01</leafValues></_>
        <_>
          <internalNodes>
            0 -1 120 -1.4945266302675009e-03</internalNodes>
          <leafValues>
            2.2306881844997406e-01 -6.3491892814636230e-01</leafValues></_>
        <_>
          <internalNodes>
            0 -1 187 3.2523207366466522e-02</internalNodes>
          <leafValues>
            -2.7019229531288147e-01 5.9547448158264160e-01</leafValues></_>
        <_>
          <internalNodes>
            0 -1 54 1.2507613003253937e-01</internalNodes>
          <leafValues>
            -6.1072272062301636e-01 2.7294924855232239e-01</leafValues></_>
        <_>
          <internalNodes>
            0 -1 199 8.6984375957399607e-04</internalNodes>
          <leafValues>
            1.4338703453540802e-01 -7.4135333299636841e-01</leafValues></_>
        <_>
          <internalNodes>
            0 -1 63 -1.2295871274545789e-03</internalNodes>
          <leafValues>
            3.0119162797927856e-01 -4.3545040488243103e-01</leafValues></_>
        <_>
          <internalNodes>
            0 -1 77 2.8522489592432976e-03</internalNodes>
          <leafValues>
            1.5571337938308716e-01 -6.9958502054214478e-01</leafValues></_>
        <_>
          <internalNodes>
            0 -1 110 -1.1342538055032492e-03</internalNodes>
          <leafValues>
            -7.9398572444915771e-01 1.4307545125484467e-01</leafValues></_>
        <_>
          <internalNodes>
            0 -1 137 1.6333337407559156e-04</internalNodes>
          <leafValues>
            1.4257907867431641e-01 -7.5578290224075317e-01</leafValues></_>
        <_>
          <internalNodes>
            0 -1 126 -1.3559812214225531e-04</internalNodes>
          <leafValues>
            3.0206027626991272e-01 -4.3141737580299377e-01</leafValues></_></weakClassifiers></_>
    <!-- stage 12 -->
    <_>
      <maxWeakCount>14</maxWeakCount>
      <stageThreshold>-1.9323650598526001e+00</stageThreshold>
      <weakClassifiers>
        <_>
          <internalNodes>
            0 -1 67 5.7079549878835678e-02</internalNodes>
          <leafValues>
            -6.5792924165725708e-01 3.8921377062797546e-01</leafValues></_>
        <_>
          <internalNodes>
            0 -1 139 -1.3323938474059105e-03</internalNodes>
          <leafValues>
            5.0387036800384521e-01 -4.2131578922271729e-01</leafValues></_>
        <_>
          <internalNodes>
            0 -1 98 -7.1107875555753708e-04</internalNodes>
          <leafValues>
            3.6185899376869202e-01 -4.4475707411766052e-01</leafValues></_>
        <_>
          <internalNodes>
            0 -1 188 -3.2130695879459381e-02</internalNodes>
          <leafValues>
            2.5312808156013489e-01 -5.8362227678298950e-01</leafValues></_>
        <_>
          <internalNodes>
            0 -1 81 -1.8914462998509407e-03</internalNodes>
          <leafValues>
            3.1471315026283264e-01 -4.7023850679397583e-01</leafValues></_>
        <_>
          <internalNodes>
            0 -1 165 -3.3525908365845680e-03</internalNodes>
          <leafValues>
            1.6800323128700256e-01 -7.6718252897262573e-01</leafValues></_>
        <_>
          <internalNodes>
            0 -1 46 9.4507783651351929e-03</internalNodes>
          <leafValues>
            -6.9510763883590698e-01 1.7785176634788513e-01</leafValues></_>
        <_>
          <internalNodes>
            0 -1 128 -2.4892357178032398e-03</internalNodes>
          <leafValues>
            2.1152934432029724e-01 -6.1376225948333740e-01</leafValues></_>
        <_>
          <internalNodes>
            0 -1 86 1.2259813025593758e-02</internalNodes>
          <leafValues>
            1.0873524099588394e-01 -7.8026282787322998e-01</leafValues></_>
        <_>
          <internalNodes>
            0 -1 152 -1.1821156658697873e-04</internalNodes>
          <leafValues>
            -7.7832043170928955e-01 1.3853342831134796e-01</leafValues></_>
        <_>
          <internalNodes>
            0 -1 176 2.8485409915447235e-02</internalNodes>
          <leafValues>
            1.1242212355136871e-01 -9.0360742807388306e-01</leafValues></_>
        <_>
          <internalNodes>
            0 -1 109 3.2063669641502202e-04</internalNodes>
          <leafValues>
            -3.0528548359870911e-01 4.2904305458068848e-01</leafValues></_>
        <_>
          <internalNodes>
            0 -1 133 3.2460817601531744e-04</internalNodes>
          <leafValues>
            1.4527718722820282e-01 -8.0732005834579468e-01</leafValues></_>
        <_>
          <internalNodes>
            0 -1 117 -2.1182972937822342e-02</internalNodes>
          <leafValues>
            -8.7101036310195923e-01 1.1876863986253738e-01</leafValues></_></weakClassifiers></_>
    <!-- stage 13 -->
    <_>
      <maxWeakCount>12</maxWeakCount>
      <stageThreshold>-2.0488471984863281e+00</stageThreshold>
      <weakClassifiers>
        <_>
          <internalNodes>
            0 -1 174 6.4405083656311035e-02</internalNodes>
          <leafValues>
            -6.0200470685958862e-01 5.2793997526168823e-01</leafValues></_>
        <_>
          <internalNodes>
            0 -1 164 4.6465685591101646e-03</internalNodes>
          <leafValues>
            -4.1544339060783386e-01 4.8216423392295837e-01</leafValues></_>
        <_>
          <internalNodes>
            0 -1 141 1.6284192679449916e-04</internalNodes>
          <leafValues>
            -6.3537752628326416e-01 2.2912718355655670e-01</leafValues></_>
        <_>
          <internalNodes>
            0 -1 114 -6.1693839961662889e-04</internalNodes>
          <leafValues>
            3.0254292488098145e-01 -5.3684526681900024e-01</leafValues></_>
        <_>
          <internalNodes>
            0 -1 5 5.5142864584922791e-02</internalNodes>
          <leafValues>
            -2.8726682066917419e-01 4.9484056234359741e-01</leafValues></_>
        <_>
          <internalNodes>
            0 -1 191 3.2543402630835772e-03</internalNodes>
          <leafValues>
            -5.2690684795379639e-01 2.3434305191040039e-01</leafValues></_>
        <_>
          <internalNodes>
            0 -1 156 -3.5860452335327864e-03</internalNodes>
          <leafValues>
            1.7807145416736603e-01 -6.7543745040893555e-01</leafValues></_>
        <_>
          <internalNodes>
            0 -1 95 6.5061850473284721e-03</internalNodes>
          <leafValues>
            1.4413976669311523e-01 -7.9248893260955811e-01</leafValues></_>
        <_>
          <internalNodes>
            0 -1 116 -4.0053995326161385e-03</internalNodes>
          <leafValues>
            4.8584911227226257e-01 -2.9644796252250671e-01</leafValues></_>
        <_>
          <internalNodes>
            0 -1 160 6.7560635507106781e-03</internalNodes>
          <leafValues>
            -2.4734006822109222e-01 5.4532778263092041e-01</leafValues></_>
        <_>
          <internalNodes>
            0 -1 196 -2.5086459936574101e-04</internalNodes>
          <leafValues>
            -7.5937724113464355e-01 2.1463461220264435e-01</leafValues></_>
        <_>
          <internalNodes>
            0 -1 31 -8.9904926717281342e-03</internalNodes>
          <leafValues>
            -7.8360241651535034e-01 1.1155554652214050e-01</leafValues></_></weakClassifiers></_>
    <!-- stage 14 -->
    <_>
      <maxWeakCount>15</maxWeakCount>
      <stageThreshold>-1.9792826175689697e+00</stageThreshold>
      <weakClassifiers>
        <_>
          <internalNodes>
            0 -1 42 1.6499578952789307e-02</internalNodes>
          <leafValues>
            -6.1737525463104248e-01 4.4237917661666870e-01</leafValues></_>
        <_>
          <internalNodes>
            0 -1 61 -4.7037010081112385e-03</internalNodes>
          <leafValues>
            3.5558116436004639e-01 -5.6975752115249634e-01</leafValues></_>
        <_>
          <internalNodes>
            0 -1 148 1.0605527088046074e-02</internalNodes>
          <leafValues>
            -2.9161387681961060e-01 5.8912217617034912e-01</leafValues></_>
        <_>
          <internalNodes>
            0 -1 13 7.8298464417457581e-02</internalNodes>
          <leafValues>
            -2.7359086275100708e-01 4.8255208134651184e-01</leafValues></_>
        <_>
          <internalNodes>
            0 -1 150 -3.2087471336126328e-03</internalNodes>
          <leafValues>
            5.2046394348144531e-01 -2.5548133254051208e-01</leafValues></_>
        <_>
          <internalNodes>
            0 -1 73 6.2949415296316147e-03</internalNodes>
          <leafValues>
            2.0411121845245361e-01 -8.4877264499664307e-01</leafValues></_>
        <_>
          <internalNodes>
            0 -1 21 3.2384910155087709e-03</internalNodes>
          <leafValues>
            1.1385017633438110e-01 -8.0603623390197754e-01</leafValues></_>
        <_>
          <internalNodes>
            0 -1 143 -2.4839743855409324e-04</internalNodes>
          <leafValues>
            -7.8577113151550293e-01 1.2610559165477753e-01</leafValues></_>
        <_>
          <internalNodes>
            0 -1 131 2.4961708113551140e-03</internalNodes>
          <leafValues>
            1.4485602080821991e-01 -8.3730351924896240e-01</leafValues></_>
        <_>
          <internalNodes>
            0 -1 168 8.1958895316347480e-04</internalNodes>
          <leafValues>
            -2.8213220834732056e-01 4.3924701213836670e-01</leafValues></_>
        <_>
          <internalNodes>
            0 -1 171 6.6099991090595722e-04</internalNodes>
          <leafValues>
            -4.1092166304588318e-01 2.7528655529022217e-01</leafValues></_>
        <_>
          <internalNodes>
            0 -1 170 1.3840395957231522e-02</internalNodes>
          <leafValues>
            -6.6129100322723389e-01 1.9938266277313232e-01</leafValues></_>
        <_>
          <internalNodes>
            0 -1 159 6.3529971521347761e-04</internalNodes>
          <leafValues>
            -3.2863208651542664e-01 3.3230182528495789e-01</leafValues></_>
        <_>
          <internalNodes>
            0 -1 29 -2.0335447043180466e-03</internalNodes>
          <leafValues>
            1.7513804137706757e-01 -7.0388239622116089e-01</leafValues></_>
        <_>
          <internalNodes>
            0 -1 125 5.0780707970261574e-03</internalNodes>
          <leafValues>
            1.1791918426752090e-01 -7.8036105632781982e-01</leafValues></_></weakClassifiers></_>
    <!-- stage 15 -->
    <_>
      <maxWeakCount>18</maxWeakCount>
      <stageThreshold>-2.2007896900177002e+00</stageThreshold>
      <weakClassifiers>
        <_>
          <internalNodes>
            0 -1 94 3.1034408602863550e-03</internalNodes>
          <leafValues>
            -5.7426029443740845e-01 5.3153151273727417e-01</leafValues></_>
        <_>
          <internalNodes>
            0 -1 92 6.5406933426856995e-03</internalNodes>
          <leafValues>
            -6.1422055959701538e-01 2.5039398670196533e-01</leafValues></_>
        <_>
          <internalNodes>
            0 -1 3 9.0047158300876617e-02</internalNodes>
          <leafValues>
            -4.7939002513885498e-01 3.5851123929023743e-01</leafValues></_>
        <_>
          <internalNodes>
            0 -1 118 6.0703954659402370e-04</internalNodes>
          <leafValues>
            -5.9037095308303833e-01 2.8714731335639954e-01</leafValues></_>
        <_>
          <internalNodes>
            0 -1 93 -5.9882223606109619e-02</internalNodes>
          <leafValues>
            1.1717738211154938e-01 -8.6019521951675415e-01</leafValues></_>
        <_>
          <internalNodes>
            0 -1 69 2.8985372046008706e-04</internalNodes>
          <leafValues>
            -4.5649117231369019e-01 2.3536853492259979e-01</leafValues></_>
        <_>
          <internalNodes>
            0 -1 140 4.8364209942519665e-04</internalNodes>
          <leafValues>
            -5.7126057147979736e-01 2.0308643579483032e-01</leafValues></_>
        <_>
          <internalNodes>
            0 -1 177 -3.9358073845505714e-03</internalNodes>
          <leafValues>
            -7.3117315769195557e-01 1.4980754256248474e-01</leafValues></_>
        <_>
          <internalNodes>
            0 -1 122 4.1025429964065552e-03</internalNodes>
          <leafValues>
            -5.4341447353363037e-01 1.9812400639057159e-01</leafValues></_>
        <_>
          <internalNodes>
            0 -1 111 2.3956142831593752e-03</internalNodes>
          <leafValues>
            1.0818583518266678e-01 -7.1384394168853760e-01</leafValues></_>
        <_>
          <internalNodes>
            0 -1 103 1.5023793093860149e-03</internalNodes>
          <leafValues>
            -5.2304834127426147e-01 1.8343263864517212e-01</leafValues></_>
        <_>
          <internalNodes>
            0 -1 189 -4.8724922817200422e-04</internalNodes>
          <leafValues>
            -6.8999379873275757e-01 1.3825216889381409e-01</leafValues></_>
        <_>
          <internalNodes>
            0 -1 178 -3.5943184047937393e-03</internalNodes>
          <leafValues>
            4.0773802995681763e-01 -2.5315591692924500e-01</leafValues></_>
        <_>
          <internalNodes>
            0 -1 99 2.1661275532096624e-03</internalNodes>
          <leafValues>
            1.9031514227390289e-01 -6.7288488149642944e-01</leafValues></_>
        <_>
          <internalNodes>
            0 -1 180 -6.6682607866823673e-03</internalNodes>
          <leafValues>
            5.2228534221649170e-01 -2.5137570500373840e-01</leafValues></_>
        <_>
          <internalNodes>
            0 -1 161 -7.5670325895771384e-04</internalNodes>
          <leafValues>
            -7.6645678281784058e-01 1.6124445199966431e-01</leafValues></_>
        <_>
          <internalNodes>
            0 -1 169 -4.1711656376719475e-03</internalNodes>
          <leafValues>
            3.9709192514419556e-01 -2.9123735427856445e-01</leafValues></_>
        <_>
          <internalNodes>
            0 -1 83 -1.6497820615768433e-03</internalNodes>
          <leafValues>
            4.1506868600845337e-01 -2.4308468401432037e-01</leafValues></_></weakClassifiers></_>
    <!-- stage 16 -->
    <_>
      <maxWeakCount>18</maxWeakCount>
      <stageThreshold>-2.0647146701812744e+00</stageThreshold>
      <weakClassifiers>
        <_>
          <internalNodes>
            0 -1 1 9.2300940304994583e-03</internalNodes>
          <leafValues>
            -6.0581684112548828e-01 4.0397351980209351e-01</leafValues></_>
        <_>
          <internalNodes>
            0 -1 129 -1.3795914128422737e-04</internalNodes>
          <leafValues>
            3.4675830602645874e-01 -4.5879235863685608e-01</leafValues></_>
        <_>
          <internalNodes>
            0 -1 89 -1.8799811368808150e-04</internalNodes>
          <leafValues>
            2.0306299626827240e-01 -6.7443156242370605e-01</leafValues></_>
        <_>
          <internalNodes>
            0 -1 28 7.8403547406196594e-02</internalNodes>
          <leafValues>
            -2.7788963913917542e-01 4.8316913843154907e-01</leafValues></_>
        <_>
          <internalNodes>
            0 -1 41 -7.8987956047058105e-02</internalNodes>
          <leafValues>
            2.6702532172203064e-01 -4.6827033162117004e-01</leafValues></_>
        <_>
          <internalNodes>
            0 -1 43 -4.0324088186025620e-03</internalNodes>
          <leafValues>
            2.7388462424278259e-01 -4.1373661160469055e-01</leafValues></_>
        <_>
          <internalNodes>
            0 -1 96 -8.1177093088626862e-03</internalNodes>
          <leafValues>
            -6.4322113990783691e-01 1.6306672990322113e-01</leafValues></_>
        <_>
          <internalNodes>
            0 -1 157 4.0024219197221100e-04</internalNodes>
          <leafValues>
            1.0293292254209518e-01 -7.8955751657485962e-01</leafValues></_>
        <_>
          <internalNodes>
            0 -1 163 7.4172136373817921e-04</internalNodes>
          <leafValues>
            -5.6751692295074463e-01 1.8872871994972229e-01</leafValues></_>
        <_>
          <internalNodes>
            0 -1 20 3.3867935417219996e-04</internalNodes>
          <leafValues>
            1.3283997774124146e-01 -7.4649429321289063e-01</leafValues></_>
        <_>
          <internalNodes>
            0 -1 20 -3.9333815220743418e-04</internalNodes>
          <leafValues>
            -6.8557846546173096e-01 1.3871818780899048e-01</leafValues></_>
        <_>
          <internalNodes>
            0 -1 85 7.3975120903924108e-04</internalNodes>
          <leafValues>
            -2.8017064929008484e-01 3.9657649397850037e-01</leafValues></_>
        <_>
          <internalNodes>
            0 -1 79 -5.8224853128194809e-03</internalNodes>
          <leafValues>
            5.3221267461776733e-01 -2.0965346693992615e-01</leafValues></_>
        <_>
          <internalNodes>
            0 -1 82 9.6874358132481575e-03</internalNodes>
          <leafValues>
            1.4495073258876801e-01 -7.8759670257568359e-01</leafValues></_>
        <_>
          <internalNodes>
            0 -1 115 6.4148325473070145e-03</internalNodes>
          <leafValues>
            1.3739304244518280e-01 -7.3265546560287476e-01</leafValues></_>
        <_>
          <internalNodes>
            0 -1 147 8.2137074787169695e-04</internalNodes>
          <leafValues>
            -3.1188577413558960e-01 3.6289393901824951e-01</leafValues></_>
        <_>
          <internalNodes>
            0 -1 121 -8.2021960988640785e-03</internalNodes>
          <leafValues>
            5.8511292934417725e-01 -1.8050898611545563e-01</leafValues></_>
        <_>
          <internalNodes>
            0 -1 135 1.8204846419394016e-03</internalNodes>
          <leafValues>
            1.5201412141323090e-01 -7.5454461574554443e-01</leafValues></_></weakClassifiers></_>
    <!-- stage 17 -->
    <_>
      <maxWeakCount>21</maxWeakCount>
      <stageThreshold>-2.3014695644378662e+00</stageThreshold>
      <weakClassifiers>
        <_>
          <internalNodes>
            0 -1 193 -6.6790640354156494e-02</internalNodes>
          <leafValues>
            5.3195488452911377e-01 -5.5996596813201904e-01</leafValues></_>
        <_>
          <internalNodes>
            0 -1 33 -2.9940062668174505e-03</internalNodes>
          <leafValues>
            2.8354865312576294e-01 -5.3039520978927612e-01</leafValues></_>
        <_>
          <internalNodes>
            0 -1 50 -5.1241077482700348e-02</internalNodes>
          <leafValues>
            3.3075109124183655e-01 -3.6511322855949402e-01</leafValues></_>
        <_>
          <internalNodes>
            0 -1 44 4.3596624163910747e-04</internalNodes>
          <leafValues>
            -4.6947067975997925e-01 2.5362178683280945e-01</leafValues></_>
        <_>
          <internalNodes>
            0 -1 154 1.5943242760840803e-04</internalNodes>
          <leafValues>
            1.9741906225681305e-01 -6.2208932638168335e-01</leafValues></_>
        <_>
          <internalNodes>
            0 -1 175 -2.8980006463825703e-03</internalNodes>
          <leafValues>
            2.0693559944629669e-01 -5.9367591142654419e-01</leafValues></_>
        <_>
          <internalNodes>
            0 -1 203 1.3498961925506592e-03</internalNodes>
          <leafValues>
            1.3941435515880585e-01 -6.0392791032791138e-01</leafValues></_>
        <_>
          <internalNodes>
            0 -1 179 7.1235990617424250e-04</internalNodes>
          <leafValues>
            -4.0904355049133301e-01 2.6330307126045227e-01</leafValues></_>
        <_>
          <internalNodes>
            0 -1 123 1.2474425602704287e-03</internalNodes>
          <leafValues>
            1.2017203867435455e-01 -7.1357721090316772e-01</leafValues></_>
        <_>
          <internalNodes>
            0 -1 12 1.6712314682081342e-03</internalNodes>
          <leafValues>
            1.3340507447719574e-01 -6.5205299854278564e-01</leafValues></_>
        <_>
          <internalNodes>
            0 -1 136 5.5707379942759871e-04</internalNodes>
          <leafValues>
            -5.3737032413482666e-01 1.8206278979778290e-01</leafValues></_>
        <_>
          <internalNodes>
            0 -1 32 -3.4564211964607239e-03</internalNodes>
          <leafValues>
            -7.8052449226379395e-01 1.2209939956665039e-01</leafValues></_>
        <_>
          <internalNodes>
            0 -1 25 -6.9767227396368980e-03</internalNodes>
          <leafValues>
            -7.1433675289154053e-01 1.2146832793951035e-01</leafValues></_>
        <_>
          <internalNodes>
            0 -1 166 -9.6500938525423408e-04</internalNodes>
          <leafValues>
            4.0208688378334045e-01 -2.6157200336456299e-01</leafValues></_>
        <_>
          <internalNodes>
            0 -1 65 2.9055166989564896e-02</internalNodes>
          <leafValues>
            1.2786109745502472e-01 -7.8519737720489502e-01</leafValues></_>
        <_>
          <internalNodes>
            0 -1 183 1.0845357552170753e-02</internalNodes>
          <leafValues>
            -2.0069074630737305e-01 5.2453047037124634e-01</leafValues></_>
        <_>
          <internalNodes>
            0 -1 16 -1.8625489901751280e-03</internalNodes>
          <leafValues>
            -5.3268003463745117e-01 2.0961731672286987e-01</leafValues></_>
        <_>
          <internalNodes>
            0 -1 19 -5.5629346519708633e-02</internalNodes>
          <leafValues>
            1.6084235906600952e-01 -5.8532315492630005e-01</leafValues></_>
        <_>
          <internalNodes>
            0 -1 91 7.1297050453722477e-04</internalNodes>
          <leafValues>
            -3.9031878113746643e-01 2.3545719683170319e-01</leafValues></_>
        <_>
          <internalNodes>
            0 -1 48 -8.7266797199845314e-03</internalNodes>
          <leafValues>
            5.3916704654693604e-01 -1.8472097814083099e-01</leafValues></_>
        <_>
          <internalNodes>
            0 -1 87 4.3351290514692664e-04</internalNodes>
          <leafValues>
            1.3954675197601318e-01 -7.7363771200180054e-01</leafValues></_></weakClassifiers></_></stages>
  <features>
    <_>
      <rects>
        <_>
          0 0 1 16 -1.</_>
        <_>
          0 8 1 8 2.</_></rects>
      <tilted>0</tilted></_>
    <_>
      <rects>
        <_>
          0 0 8 4 -1.</_>
        <_>
          0 0 4 2 2.</_>
        <_>
          4 2 4 2 2.</_></rects>
      <tilted>0</tilted></_>
    <_>
      <rects>
        <_>
          0 0 34 15 -1.</_>
        <_>
          0 5 34 5 3.</_></rects>
      <tilted>0</tilted></_>
    <_>
      <rects>
        <_>
          0 1 8 21 -1.</_>
        <_>
          4 1 4 21 2.</_></rects>
      <tilted>0</tilted></_>
    <_>
      <rects>
        <_>
          0 2 8 20 -1.</_>
        <_>
          4 2 4 20 2.</_></rects>
      <tilted>0</tilted></_>
    <_>
      <rects>
        <_>
          0 4 9 12 -1.</_>
        <_>
          3 4 3 12 3.</_></rects>
      <tilted>0</tilted></_>
    <_>
      <rects>
        <_>
          0 4 8 20 -1.</_>
        <_>
          4 4 4 20 2.</_></rects>
      <tilted>0</tilted></_>
    <_>
      <rects>
        <_>
          0 5 8 18 -1.</_>
        <_>
          4 5 4 18 2.</_></rects>
      <tilted>0</tilted></_>
    <_>
      <rects>
        <_>
          0 6 6 12 -1.</_>
        <_>
          3 6 3 12 2.</_></rects>
      <tilted>0</tilted></_>
    <_>
      <rects>
        <_>
          0 7 6 9 -1.</_>
        <_>
          3 7 3 9 2.</_></rects>
      <tilted>0</tilted></_>
    <_>
      <rects>
        <_>
          0 7 8 8 -1.</_>
        <_>
          4 7 4 8 2.</_></rects>
      <tilted>0</tilted></_>
    <_>
      <rects>
        <_>
          0 8 8 16 -1.</_>
        <_>
          4 8 4 16 2.</_></rects>
      <tilted>0</tilted></_>
    <_>
      <rects>
        <_>
          0 11 5 4 -1.</_>
        <_>
          0 12 5 2 2.</_></rects>
      <tilted>0</tilted></_>
    <_>
      <rects>
        <_>
          0 12 33 3 -1.</_>
        <_>
          11 13 11 1 9.</_></rects>
      <tilted>0</tilted></_>
    <_>
      <rects>
        <_>
          0 14 15 12 -1.</_>
        <_>
          0 18 15 4 3.</_></rects>
      <tilted>0</tilted></_>
    <_>
      <rects>
        <_>
          0 16 18 8 -1.</_>
        <_>
          9 16 9 8 2.</_></rects>
      <tilted>0</tilted></_>
    <_>
      <rects>
        <_>
          0 18 1 8 -1.</_>
        <_>
          0 22 1 4 2.</_></rects>
      <tilted>0</tilted></_>
    <_>
      <rects>
        <_>
          0 19 18 5 -1.</_>
        <_>
          9 19 9 5 2.</_></rects>
      <tilted>0</tilted></_>
    <_>
      <rects>
        <_>
          0 20 1 6 -1.</_>
        <_>
          0 23 1 3 2.</_></rects>
      <tilted>0</tilted></_>
    <_>
      <rects>
        <_>
          0 20 27 6 -1.</_>
        <_>
          0 23 27 3 2.</_></rects>
      <tilted>0</tilted></_>
    <_>
      <rects>
        <_>
          0 23 1 3 -1.</_>
        <_>
          0 24 1 1 3.</_></rects>
      <tilted>0</tilted></_>
    <_>
      <rects>
        <_>
          0 25 16 1 -1.</_>
        <_>
          4 25 8 1 2.</_></rects>
      <tilted>0</tilted></_>
    <_>
      <rects>
        <_>
          1 0 9 18 -1.</_>
        <_>
          4 6 3 6 9.</_></rects>
      <tilted>0</tilted></_>
    <_>
      <rects>
        <_>
          1 0 31 8 -1.</_>
        <_>
          1 4 31 4 2.</_></rects>
      <tilted>0</tilted></_>
    <_>
      <rects>
        <_>
          1 3 9 16 -1.</_>
        <_>
          4 3 3 16 3.</_></rects>
      <tilted>0</tilted></_>
    <_>
      <rects>
        <_>
          1 4 15 8 -1.</_>
        <_>
          1 6 15 4 2.</_></rects>
      <tilted>0</tilted></_>
    <_>
      <rects>
        <_>
          1 8 9 5 -1.</_>
        <_>
          4 8 3 5 3.</_></rects>
      <tilted>0</tilted></_>
    <_>
      <rects>
        <_>
          1 11 30 8 -1.</_>
        <_>
          1 13 30 4 2.</_></rects>
      <tilted>0</tilted></_>
    <_>
      <rects>
        <_>
          1 12 33 3 -1.</_>
        <_>
          12 13 11 1 9.</_></rects>
      <tilted>0</tilted></_>
    <_>
      <rects>
        <_>
          2 0 16 1 -1.</_>
        <_>
          2 0 8 1 2.</_></rects>
      <tilted>1</tilted></_>
    <_>
      <rects>
        <_>
          2 0 32 8 -1.</_>
        <_>
          2 4 32 4 2.</_></rects>
      <tilted>0</tilted></_>
    <_>
      <rects>
        <_>
          2 6 7 9 -1.</_>
        <_>
          2 9 7 3 3.</_></rects>
      <tilted>0</tilted></_>
    <_>
      <rects>
        <_>
          2 9 29 9 -1.</_>
        <_>
          2 12 29 3 3.</_></rects>
      <tilted>0</tilted></_>
    <_>
      <rects>
        <_>
          2 10 23 3 -1.</_>
        <_>
          2 11 23 1 3.</_></rects>
      <tilted>0</tilted></_>
    <_>
      <rects>
        <_>
          2 14 27 12 -1.</_>
        <_>
          2 18 27 4 3.</_></rects>
      <tilted>0</tilted></_>
    <_>
      <rects>
        <_>
          2 17 28 9 -1.</_>
        <_>
          2 20 28 3 3.</_></rects>
      <tilted>0</tilted></_>
    <_>
      <rects>
        <_>
          2 20 24 6 -1.</_>
        <_>
          2 23 24 3 2.</_></rects>
      <tilted>0</tilted></_>
    <_>
      <rects>
        <_>
          2 20 28 6 -1.</_>
        <_>
          2 23 28 3 2.</_></rects>
      <tilted>0</tilted></_>
    <_>
      <rects>
        <_>
          3 5 30 12 -1.</_>
        <_>
          3 8 30 6 2.</_></rects>
      <tilted>0</tilted></_>
    <_>
      <rects>
        <_>
          3 8 28 8 -1.</_>
        <_>
          3 10 28 4 2.</_></rects>
      <tilted>0</tilted></_>
    <_>
      <rects>
        <_>
          3 18 19 8 -1.</_>
        <_>
          3 22 19 4 2.</_></rects>
      <tilted>0</tilted></_>
    <_>
      <rects>
        <_>
          3 20 26 6 -1.</_>
        <_>
          3 23 26 3 2.</_></rects>
      <tilted>0</tilted></_>
    <_>
      <rects>
        <_>
          4 1 22 4 -1.</_>
        <_>
          4 2 22 2 2.</_></rects>
      <tilted>0</tilted></_>
    <_>
      <rects>
        <_>
          4 5 12 10 -1.</_>
        <_>
          8 5 4 10 3.</_></rects>
      <tilted>0</tilted></_>
    <_>
      <rects>
        <_>
          4 10 4 2 -1.</_>
        <_>
          5 10 2 2 2.</_></rects>
      <tilted>0</tilted></_>
    <_>
      <rects>
        <_>
          4 10 22 4 -1.</_>
        <_>
          4 12 22 2 2.</_></rects>
      <tilted>0</tilted></_>
    <_>
      <rects>
        <_>
          4 12 9 4 -1.</_>
        <_>
          4 12 9 2 2.</_></rects>
      <tilted>1</tilted></_>
    <_>
      <rects>
        <_>
          4 12 20 6 -1.</_>
        <_>
          4 14 20 2 3.</_></rects>
      <tilted>0</tilted></_>
    <_>
      <rects>
        <_>
          4 15 6 7 -1.</_>
        <_>
          6 15 2 7 3.</_></rects>
      <tilted>0</tilted></_>
    <_>
      <rects>
        <_>
          4 16 26 10 -1.</_>
        <_>
          4 21 26 5 2.</_></rects>
      <tilted>0</tilted></_>
    <_>
      <rects>
        <_>
          4 22 23 4 -1.</_>
        <_>
          4 24 23 2 2.</_></rects>
      <tilted>0</tilted></_>
    <_>
      <rects>
        <_>
          5 0 7 6 -1.</_>
        <_>
          5 3 7 3 2.</_></rects>
      <tilted>0</tilted></_>
    <_>
      <rects>
        <_>
          5 0 23 4 -1.</_>
        <_>
          5 2 23 2 2.</_></rects>
      <tilted>0</tilted></_>
    <_>
      <rects>
        <_>
          5 0 23 14 -1.</_>
        <_>
          5 7 23 7 2.</_></rects>
      <tilted>0</tilted></_>
    <_>
      <rects>
        <_>
          5 0 25 24 -1.</_>
        <_>
          5 8 25 8 3.</_></rects>
      <tilted>0</tilted></_>
    <_>
      <rects>
        <_>
          5 16 9 10 -1.</_>
        <_>
          5 21 9 5 2.</_></rects>
      <tilted>0</tilted></_>
    <_>
      <rects>
        <_>
          5 20 5 6 -1.</_>
        <_>
          5 23 5 3 2.</_></rects>
      <tilted>0</tilted></_>
    <_>
      <rects>
        <_>
          5 20 26 6 -1.</_>
        <_>
          5 23 26 3 2.</_></rects>
      <tilted>0</tilted></_>
    <_>
      <rects>
        <_>
          5 22 23 4 -1.</_>
        <_>
          5 24 23 2 2.</_></rects>
      <tilted>0</tilted></_>
    <_>
      <rects>
        <_>
          6 1 4 6 -1.</_>
        <_>
          6 1 2 6 2.</_></rects>
      <tilted>1</tilted></_>
    <_>
      <rects>
        <_>
          6 2 12 10 -1.</_>
        <_>
          9 2 6 10 2.</_></rects>
      <tilted>0</tilted></_>
    <_>
      <rects>
        <_>
          6 7 6 6 -1.</_>
        <_>
          8 7 2 6 3.</_></rects>
      <tilted>0</tilted></_>
    <_>
      <rects>
        <_>
          6 10 2 6 -1.</_>
        <_>
          6 10 1 6 2.</_></rects>
      <tilted>1</tilted></_>
    <_>
      <rects>
        <_>
          6 10 4 3 -1.</_>
        <_>
          8 10 2 3 2.</_></rects>
      <tilted>0</tilted></_>
    <_>
      <rects>
        <_>
          6 10 6 3 -1.</_>
        <_>
          8 10 2 3 3.</_></rects>
      <tilted>0</tilted></_>
    <_>
      <rects>
        <_>
          6 10 18 8 -1.</_>
        <_>
          6 12 18 4 2.</_></rects>
      <tilted>0</tilted></_>
    <_>
      <rects>
        <_>
          6 12 24 6 -1.</_>
        <_>
          6 14 24 2 3.</_></rects>
      <tilted>0</tilted></_>
    <_>
      <rects>
        <_>
          6 20 22 6 -1.</_>
        <_>
          6 22 22 2 3.</_></rects>
      <tilted>0</tilted></_>
    <_>
      <rects>
        <_>
          7 5 17 21 -1.</_>
        <_>
          7 12 17 7 3.</_></rects>
      <tilted>0</tilted></_>
    <_>
      <rects>
        <_>
          7 8 4 3 -1.</_>
        <_>
          7 8 2 3 2.</_></rects>
      <tilted>1</tilted></_>
    <_>
      <rects>
        <_>
          7 10 18 3 -1.</_>
        <_>
          7 11 18 1 3.</_></rects>
      <tilted>0</tilted></_>
    <_>
      <rects>
        <_>
          7 10 25 6 -1.</_>
        <_>
          7 12 25 2 3.</_></rects>
      <tilted>0</tilted></_>
    <_>
      <rects>
        <_>
          7 11 20 4 -1.</_>
        <_>
          7 12 20 2 2.</_></rects>
      <tilted>0</tilted></_>
    <_>
      <rects>
        <_>
          7 12 8 3 -1.</_>
        <_>
          11 12 4 3 2.</_></rects>
      <tilted>0</tilted></_>
    <_>
      <rects>
        <_>
          7 22 21 4 -1.</_>
        <_>
          7 24 21 2 2.</_></rects>
      <tilted>0</tilted></_>
    <_>
      <rects>
        <_>
          8 0 2 6 -1.</_>
        <_>
          8 0 1 6 2.</_></rects>
      <tilted>1</tilted></_>
    <_>
      <rects>
        <_>
          8 11 19 4 -1.</_>
        <_>
          8 12 19 2 2.</_></rects>
      <tilted>0</tilted></_>
    <_>
      <rects>
        <_>
          8 12 8 2 -1.</_>
        <_>
          12 12 4 2 2.</_></rects>
      <tilted>0</tilted></_>
    <_>
      <rects>
        <_>
          8 12 17 3 -1.</_>
        <_>
          8 13 17 1 3.</_></rects>
      <tilted>0</tilted></_>
    <_>
      <rects>
        <_>
          8 14 6 4 -1.</_>
        <_>
          10 14 2 4 3.</_></rects>
      <tilted>0</tilted></_>
    <_>
      <rects>
        <_>
          9 0 2 9 -1.</_>
        <_>
          9 0 1 9 2.</_></rects>
      <tilted>1</tilted></_>
    <_>
      <rects>
        <_>
          9 10 24 3 -1.</_>
        <_>
          9 11 24 1 3.</_></rects>
      <tilted>0</tilted></_>
    <_>
      <rects>
        <_>
          9 12 12 4 -1.</_>
        <_>
          13 12 4 4 3.</_></rects>
      <tilted>0</tilted></_>
    <_>
      <rects>
        <_>
          9 13 4 10 -1.</_>
        <_>
          10 13 2 10 2.</_></rects>
      <tilted>0</tilted></_>
    <_>
      <rects>
        <_>
          9 13 15 3 -1.</_>
        <_>
          9 14 15 1 3.</_></rects>
      <tilted>0</tilted></_>
    <_>
      <rects>
        <_>
          9 16 3 3 -1.</_>
        <_>
          10 16 1 3 3.</_></rects>
      <tilted>0</tilted></_>
    <_>
      <rects>
        <_>
          9 21 15 4 -1.</_>
        <_>
          14 21 5 4 3.</_></rects>
      <tilted>0</tilted></_>
    <_>
      <rects>
        <_>
          9 23 4 1 -1.</_>
        <_>
          10 23 2 1 2.</_></rects>
      <tilted>0</tilted></_>
    <_>
      <rects>
        <_>
          10 0 16 8 -1.</_>
        <_>
          10 4 16 4 2.</_></rects>
      <tilted>0</tilted></_>
    <_>
      <rects>
        <_>
          10 4 8 9 -1.</_>
        <_>
          12 4 4 9 2.</_></rects>
      <tilted>0</tilted></_>
    <_>
      <rects>
        <_>
          10 8 3 2 -1.</_>
        <_>
          11 8 1 2 3.</_></rects>
      <tilted>0</tilted></_>
    <_>
      <rects>
        <_>
          10 11 3 3 -1.</_>
        <_>
          11 12 1 1 9.</_></rects>
      <tilted>0</tilted></_>
    <_>
      <rects>
        <_>
          10 11 24 4 -1.</_>
        <_>
          10 12 24 2 2.</_></rects>
      <tilted>0</tilted></_>
    <_>
      <rects>
        <_>
          10 12 22 14 -1.</_>
        <_>
          10 19 22 7 2.</_></rects>
      <tilted>0</tilted></_>
    <_>
      <rects>
        <_>
          10 21 12 2 -1.</_>
        <_>
          10 22 12 1 2.</_></rects>
      <tilted>0</tilted></_>
    <_>
      <rects>
        <_>
          11 4 9 3 -1.</_>
        <_>
          14 7 3 3 3.</_></rects>
      <tilted>1</tilted></_>
    <_>
      <rects>
        <_>
          11 6 6 2 -1.</_>
        <_>
          11 6 3 2 2.</_></rects>
      <tilted>1</tilted></_>
    <_>
      <rects>
        <_>
          11 8 3 3 -1.</_>
        <_>
          12 8 1 3 3.</_></rects>
      <tilted>0</tilted></_>
    <_>
      <rects>
        <_>
          11 11 4 2 -1.</_>
        <_>
          12 11 2 2 2.</_></rects>
      <tilted>0</tilted></_>
    <_>
      <rects>
        <_>
          11 13 8 1 -1.</_>
        <_>
          15 13 4 1 2.</_></rects>
      <tilted>0</tilted></_>
    <_>
      <rects>
        <_>
          11 18 11 8 -1.</_>
        <_>
          11 22 11 4 2.</_></rects>
      <tilted>0</tilted></_>
    <_>
      <rects>
        <_>
          11 21 14 4 -1.</_>
        <_>
          11 22 14 2 2.</_></rects>
      <tilted>0</tilted></_>
    <_>
      <rects>
        <_>
          12 6 10 8 -1.</_>
        <_>
          12 8 10 4 2.</_></rects>
      <tilted>0</tilted></_>
    <_>
      <rects>
        <_>
          12 7 6 4 -1.</_>
        <_>
          15 7 3 4 2.</_></rects>
      <tilted>0</tilted></_>
    <_>
      <rects>
        <_>
          12 8 2 5 -1.</_>
        <_>
          13 8 1 5 2.</_></rects>
      <tilted>0</tilted></_>
    <_>
      <rects>
        <_>
          12 8 6 4 -1.</_>
        <_>
          15 8 3 4 2.</_></rects>
      <tilted>0</tilted></_>
    <_>
      <rects>
        <_>
          12 10 6 2 -1.</_>
        <_>
          15 10 3 2 2.</_></rects>
      <tilted>0</tilted></_>
    <_>
      <rects>
        <_>
          12 10 9 2 -1.</_>
        <_>
          15 10 3 2 3.</_></rects>
      <tilted>0</tilted></_>
    <_>
      <rects>
        <_>
          12 10 6 4 -1.</_>
        <_>
          12 10 3 2 2.</_>
        <_>
          15 12 3 2 2.</_></rects>
      <tilted>0</tilted></_>
    <_>
      <rects>
        <_>
          12 16 3 1 -1.</_>
        <_>
          13 16 1 1 3.</_></rects>
      <tilted>0</tilted></_>
    <_>
      <rects>
        <_>
          12 25 9 1 -1.</_>
        <_>
          15 25 3 1 3.</_></rects>
      <tilted>0</tilted></_>
    <_>
      <rects>
        <_>
          13 1 6 3 -1.</_>
        <_>
          15 1 2 3 3.</_></rects>
      <tilted>0</tilted></_>
    <_>
      <rects>
        <_>
          13 8 4 2 -1.</_>
        <_>
          14 9 2 2 2.</_></rects>
      <tilted>1</tilted></_>
    <_>
      <rects>
        <_>
          13 10 8 2 -1.</_>
        <_>
          15 10 4 2 2.</_></rects>
      <tilted>0</tilted></_>
    <_>
      <rects>
        <_>
          13 10 8 3 -1.</_>
        <_>
          13 11 8 1 3.</_></rects>
      <tilted>0</tilted></_>
    <_>
      <rects>
        <_>
          13 12 12 2 -1.</_>
        <_>
          17 12 4 2 3.</_></rects>
      <tilted>0</tilted></_>
    <_>
      <rects>
        <_>
          13 13 6 4 -1.</_>
        <_>
          15 13 2 4 3.</_></rects>
      <tilted>0</tilted></_>
    <_>
      <rects>
        <_>
          13 14 20 6 -1.</_>
        <_>
          13 17 20 3 2.</_></rects>
      <tilted>0</tilted></_>
    <_>
      <rects>
        <_>
          14 4 6 3 -1.</_>
        <_>
          16 4 2 3 3.</_></rects>
      <tilted>0</tilted></_>
    <_>
      <rects>
        <_>
          14 5 6 2 -1.</_>
        <_>
          16 5 2 2 3.</_></rects>
      <tilted>0</tilted></_>
    <_>
      <rects>
        <_>
          14 12 16 6 -1.</_>
        <_>
          14 14 16 2 3.</_></rects>
      <tilted>0</tilted></_>
    <_>
      <rects>
        <_>
          14 14 6 5 -1.</_>
        <_>
          16 14 2 5 3.</_></rects>
      <tilted>0</tilted></_>
    <_>
      <rects>
        <_>
          14 18 20 3 -1.</_>
        <_>
          19 18 10 3 2.</_></rects>
      <tilted>0</tilted></_>
    <_>
      <rects>
        <_>
          15 0 4 4 -1.</_>
        <_>
          16 0 2 4 2.</_></rects>
      <tilted>0</tilted></_>
    <_>
      <rects>
        <_>
          15 0 15 10 -1.</_>
        <_>
          15 5 15 5 2.</_></rects>
      <tilted>0</tilted></_>
    <_>
      <rects>
        <_>
          15 2 12 13 -1.</_>
        <_>
          19 2 4 13 3.</_></rects>
      <tilted>0</tilted></_>
    <_>
      <rects>
        <_>
          15 4 2 6 -1.</_>
        <_>
          15 4 1 3 2.</_>
        <_>
          16 7 1 3 2.</_></rects>
      <tilted>0</tilted></_>
    <_>
      <rects>
        <_>
          15 4 12 9 -1.</_>
        <_>
          19 4 4 9 3.</_></rects>
      <tilted>0</tilted></_>
    <_>
      <rects>
        <_>
          15 7 8 6 -1.</_>
        <_>
          19 7 4 6 2.</_></rects>
      <tilted>0</tilted></_>
    <_>
      <rects>
        <_>
          15 8 2 1 -1.</_>
        <_>
          16 8 1 1 2.</_></rects>
      <tilted>0</tilted></_>
    <_>
      <rects>
        <_>
          15 9 4 6 -1.</_>
        <_>
          15 11 4 2 3.</_></rects>
      <tilted>0</tilted></_>
    <_>
      <rects>
        <_>
          15 10 3 3 -1.</_>
        <_>
          16 11 1 1 9.</_></rects>
      <tilted>0</tilted></_>
    <_>
      <rects>
        <_>
          15 10 8 4 -1.</_>
        <_>
          15 10 4 2 2.</_>
        <_>
          19 12 4 2 2.</_></rects>
      <tilted>0</tilted></_>
    <_>
      <rects>
        <_>
          15 12 2 1 -1.</_>
        <_>
          16 12 1 1 2.</_></rects>
      <tilted>0</tilted></_>
    <_>
      <rects>
        <_>
          15 12 3 1 -1.</_>
        <_>
          16 12 1 1 3.</_></rects>
      <tilted>0</tilted></_>
    <_>
      <rects>
        <_>
          16 1 6 2 -1.</_>
        <_>
          18 1 2 2 3.</_></rects>
      <tilted>0</tilted></_>
    <_>
      <rects>
        <_>
          16 3 2 6 -1.</_>
        <_>
          16 5 2 2 3.</_></rects>
      <tilted>0</tilted></_>
    <_>
      <rects>
        <_>
          16 4 2 1 -1.</_>
        <_>
          17 4 1 1 2.</_></rects>
      <tilted>0</tilted></_>
    <_>
      <rects>
        <_>
          16 5 12 2 -1.</_>
        <_>
          20 5 4 2 3.</_></rects>
      <tilted>0</tilted></_>
    <_>
      <rects>
        <_>
          16 7 2 3 -1.</_>
        <_>
          16 8 2 1 3.</_></rects>
      <tilted>0</tilted></_>
    <_>
      <rects>
        <_>
          16 8 2 4 -1.</_>
        <_>
          16 10 2 2 2.</_></rects>
      <tilted>0</tilted></_>
    <_>
      <rects>
        <_>
          16 8 2 6 -1.</_>
        <_>
          16 10 2 2 3.</_></rects>
      <tilted>0</tilted></_>
    <_>
      <rects>
        <_>
          16 8 4 6 -1.</_>
        <_>
          14 10 4 2 3.</_></rects>
      <tilted>1</tilted></_>
    <_>
      <rects>
        <_>
          16 10 1 3 -1.</_>
        <_>
          16 11 1 1 3.</_></rects>
      <tilted>0</tilted></_>
    <_>
      <rects>
        <_>
          16 10 3 3 -1.</_>
        <_>
          16 11 3 1 3.</_></rects>
      <tilted>0</tilted></_>
    <_>
      <rects>
        <_>
          16 10 9 2 -1.</_>
        <_>
          19 10 3 2 3.</_></rects>
      <tilted>0</tilted></_>
    <_>
      <rects>
        <_>
          16 11 2 2 -1.</_>
        <_>
          17 11 1 2 2.</_></rects>
      <tilted>0</tilted></_>
    <_>
      <rects>
        <_>
          16 14 3 3 -1.</_>
        <_>
          17 14 1 3 3.</_></rects>
      <tilted>0</tilted></_>
    <_>
      <rects>
        <_>
          16 14 6 7 -1.</_>
        <_>
          18 14 2 7 3.</_></rects>
      <tilted>0</tilted></_>
    <_>
      <rects>
        <_>
          16 14 13 12 -1.</_>
        <_>
          16 20 13 6 2.</_></rects>
      <tilted>0</tilted></_>
    <_>
      <rects>
        <_>
          16 17 6 2 -1.</_>
        <_>
          18 17 2 2 3.</_></rects>
      <tilted>0</tilted></_>
    <_>
      <rects>
        <_>
          16 20 15 6 -1.</_>
        <_>
          16 23 15 3 2.</_></rects>
      <tilted>0</tilted></_>
    <_>
      <rects>
        <_>
          17 10 1 2 -1.</_>
        <_>
          17 11 1 1 2.</_></rects>
      <tilted>0</tilted></_>
    <_>
      <rects>
        <_>
          17 10 2 1 -1.</_>
        <_>
          17 10 1 1 2.</_></rects>
      <tilted>1</tilted></_>
    <_>
      <rects>
        <_>
          17 11 1 2 -1.</_>
        <_>
          17 12 1 1 2.</_></rects>
      <tilted>0</tilted></_>
    <_>
      <rects>
        <_>
          17 11 4 1 -1.</_>
        <_>
          19 11 2 1 2.</_></rects>
      <tilted>0</tilted></_>
    <_>
      <rects>
        <_>
          18 0 4 15 -1.</_>
        <_>
          18 0 2 15 2.</_></rects>
      <tilted>1</tilted></_>
    <_>
      <rects>
        <_>
          18 10 1 2 -1.</_>
        <_>
          18 10 1 1 2.</_></rects>
      <tilted>1</tilted></_>
    <_>
      <rects>
        <_>
          18 10 4 3 -1.</_>
        <_>
          19 10 2 3 2.</_></rects>
      <tilted>0</tilted></_>
    <_>
      <rects>
        <_>
          18 15 3 3 -1.</_>
        <_>
          19 15 1 3 3.</_></rects>
      <tilted>0</tilted></_>
    <_>
      <rects>
        <_>
          18 17 6 5 -1.</_>
        <_>
          20 17 2 5 3.</_></rects>
      <tilted>0</tilted></_>
    <_>
      <rects>
        <_>
          18 23 4 2 -1.</_>
        <_>
          19 23 2 2 2.</_></rects>
      <tilted>0</tilted></_>
    <_>
      <rects>
        <_>
          19 7 4 4 -1.</_>
        <_>
          19 7 4 2 2.</_></rects>
      <tilted>1</tilted></_>
    <_>
      <rects>
        <_>
          19 9 3 3 -1.</_>
        <_>
          18 10 3 1 3.</_></rects>
      <tilted>1</tilted></_>
    <_>
      <rects>
        <_>
          19 12 9 3 -1.</_>
        <_>
          19 13 9 1 3.</_></rects>
      <tilted>0</tilted></_>
    <_>
      <rects>
        <_>
          20 0 4 19 -1.</_>
        <_>
          20 0 2 19 2.</_></rects>
      <tilted>1</tilted></_>
    <_>
      <rects>
        <_>
          20 9 2 6 -1.</_>
        <_>
          20 9 1 3 2.</_>
        <_>
          21 12 1 3 2.</_></rects>
      <tilted>0</tilted></_>
    <_>
      <rects>
        <_>
          21 0 6 8 -1.</_>
        <_>
          21 4 6 4 2.</_></rects>
      <tilted>0</tilted></_>
    <_>
      <rects>
        <_>
          21 7 3 2 -1.</_>
        <_>
          22 7 1 2 3.</_></rects>
      <tilted>0</tilted></_>
    <_>
      <rects>
        <_>
          21 16 6 6 -1.</_>
        <_>
          23 16 2 6 3.</_></rects>
      <tilted>0</tilted></_>
    <_>
      <rects>
        <_>
          22 0 11 8 -1.</_>
        <_>
          22 4 11 4 2.</_></rects>
      <tilted>0</tilted></_>
    <_>
      <rects>
        <_>
          22 11 3 3 -1.</_>
        <_>
          23 12 1 1 9.</_></rects>
      <tilted>0</tilted></_>
    <_>
      <rects>
        <_>
          23 0 9 12 -1.</_>
        <_>
          26 4 3 4 9.</_></rects>
      <tilted>0</tilted></_>
    <_>
      <rects>
        <_>
          23 3 9 10 -1.</_>
        <_>
          26 3 3 10 3.</_></rects>
      <tilted>0</tilted></_>
    <_>
      <rects>
        <_>
          23 4 9 9 -1.</_>
        <_>
          26 4 3 9 3.</_></rects>
      <tilted>0</tilted></_>
    <_>
      <rects>
        <_>
          23 4 5 8 -1.</_>
        <_>
          23 4 5 4 2.</_></rects>
      <tilted>1</tilted></_>
    <_>
      <rects>
        <_>
          23 5 11 20 -1.</_>
        <_>
          23 15 11 10 2.</_></rects>
      <tilted>0</tilted></_>
    <_>
      <rects>
        <_>
          23 6 9 6 -1.</_>
        <_>
          23 8 9 2 3.</_></rects>
      <tilted>0</tilted></_>
    <_>
      <rects>
        <_>
          23 10 4 13 -1.</_>
        <_>
          24 10 2 13 2.</_></rects>
      <tilted>0</tilted></_>
    <_>
      <rects>
        <_>
          23 12 3 3 -1.</_>
        <_>
          24 13 1 1 9.</_></rects>
      <tilted>0</tilted></_>
    <_>
      <rects>
        <_>
          24 13 6 6 -1.</_>
        <_>
          26 13 2 6 3.</_></rects>
      <tilted>0</tilted></_>
    <_>
      <rects>
        <_>
          24 15 10 9 -1.</_>
        <_>
          29 15 5 9 2.</_></rects>
      <tilted>0</tilted></_>
    <_>
      <rects>
        <_>
          25 2 8 22 -1.</_>
        <_>
          29 2 4 22 2.</_></rects>
      <tilted>0</tilted></_>
    <_>
      <rects>
        <_>
          25 5 6 7 -1.</_>
        <_>
          28 5 3 7 2.</_></rects>
      <tilted>0</tilted></_>
    <_>
      <rects>
        <_>
          25 5 9 15 -1.</_>
        <_>
          28 5 3 15 3.</_></rects>
      <tilted>0</tilted></_>
    <_>
      <rects>
        <_>
          25 5 9 18 -1.</_>
        <_>
          28 5 3 18 3.</_></rects>
      <tilted>0</tilted></_>
    <_>
      <rects>
        <_>
          25 9 6 3 -1.</_>
        <_>
          27 9 2 3 3.</_></rects>
      <tilted>0</tilted></_>
    <_>
      <rects>
        <_>
          26 4 8 13 -1.</_>
        <_>
          28 4 4 13 2.</_></rects>
      <tilted>0</tilted></_>
    <_>
      <rects>
        <_>
          26 7 8 15 -1.</_>
        <_>
          30 7 4 15 2.</_></rects>
      <tilted>0</tilted></_>
    <_>
      <rects>
        <_>
          26 9 4 2 -1.</_>
        <_>
          26 10 4 1 2.</_></rects>
      <tilted>0</tilted></_>
    <_>
      <rects>
        <_>
          26 9 8 13 -1.</_>
        <_>
          30 9 4 13 2.</_></rects>
      <tilted>0</tilted></_>
    <_>
      <rects>
        <_>
          26 20 8 6 -1.</_>
        <_>
          26 20 4 3 2.</_>
        <_>
          30 23 4 3 2.</_></rects>
      <tilted>0</tilted></_>
    <_>
      <rects>
        <_>
          27 1 7 2 -1.</_>
        <_>
          27 1 7 1 2.</_></rects>
      <tilted>1</tilted></_>
    <_>
      <rects>
        <_>
          27 4 6 10 -1.</_>
        <_>
          30 4 3 10 2.</_></rects>
      <tilted>0</tilted></_>
    <_>
      <rects>
        <_>
          27 8 6 15 -1.</_>
        <_>
          30 8 3 15 2.</_></rects>
      <tilted>0</tilted></_>
    <_>
      <rects>
        <_>
          28 6 6 10 -1.</_>
        <_>
          31 6 3 10 2.</_></rects>
      <tilted>0</tilted></_>
    <_>
      <rects>
        <_>
          28 10 1 3 -1.</_>
        <_>
          28 11 1 1 3.</_></rects>
      <tilted>0</tilted></_>
    <_>
      <rects>
        <_>
          29 9 4 12 -1.</_>
        <_>
          29 9 2 12 2.</_></rects>
      <tilted>1</tilted></_>
    <_>
      <rects>
        <_>
          29 10 1 4 -1.</_>
        <_>
          29 11 1 2 2.</_></rects>
      <tilted>0</tilted></_>
    <_>
      <rects>
        <_>
          30 11 3 4 -1.</_>
        <_>
          30 12 3 2 2.</_></rects>
      <tilted>0</tilted></_>
    <_>
      <rects>
        <_>
          30 14 4 7 -1.</_>
        <_>
          30 14 2 7 2.</_></rects>
      <tilted>1</tilted></_>
    <_>
      <rects>
        <_>
          31 4 1 21 -1.</_>
        <_>
          24 11 1 7 3.</_></rects>
      <tilted>1</tilted></_>
    <_>
      <rects>
        <_>
          32 22 1 4 -1.</_>
        <_>
          32 24 1 2 2.</_></rects>
      <tilted>0</tilted></_>
    <_>
      <rects>
        <_>
          32 22 2 2 -1.</_>
        <_>
          32 22 1 2 2.</_></rects>
      <tilted>1</tilted></_>
    <_>
      <rects>
        <_>
          33 20 1 6 -1.</_>
        <_>
          33 23 1 3 2.</_></rects>
      <tilted>0</tilted></_></features></cascade>
</opencv_storage>
